digraph Tree {
node [shape=box] ;
0 [label="worst <= 0.5\nentropy = 1.0\nsamples = 1280\nvalue = [636, 644]"] ;
1 [label="and <= 17.5\nentropy = 0.994\nsamples = 1127\nvalue = [513, 614]"] ;
0 -> 1 [labeldistance=2.5, labelangle=45, headlabel="True"] ;
2 [label="bad <= 0.5\nentropy = 0.992\nsamples = 655\nvalue = [361, 294]"] ;
1 -> 2 ;
3 [label="allows <= 0.5\nentropy = 0.999\nsamples = 448\nvalue = [214, 234]"] ;
2 -> 3 ;
4 [label="memorable <= 0.5\nentropy = 1.0\nsamples = 432\nvalue = [214, 218]"] ;
3 -> 4 ;
5 [label="have <= 0.5\nentropy = 0.999\nsamples = 408\nvalue = [212, 196]"] ;
4 -> 5 ;
6 [label="entropy = 0.932\nsamples = 118\nvalue = [41, 77]"] ;
5 -> 6 ;
7 [label="entropy = 0.977\nsamples = 290\nvalue = [171, 119]"] ;
5 -> 7 ;
8 [label="any <= 1.5\nentropy = 0.414\nsamples = 24\nvalue = [2, 22]"] ;
4 -> 8 ;
9 [label="entropy = 0.0\nsamples = 22\nvalue = [0, 22]"] ;
8 -> 9 ;
10 [label="entropy = 0.0\nsamples = 2\nvalue = [2, 0]"] ;
8 -> 10 ;
11 [label="entropy = 0.0\nsamples = 16\nvalue = [0, 16]"] ;
3 -> 11 ;
12 [label="unfortunately <= 0.5\nentropy = 0.869\nsamples = 207\nvalue = [147, 60]"] ;
2 -> 12 ;
13 [label="exciting <= 0.5\nentropy = 0.924\nsamples = 174\nvalue = [115, 59]"] ;
12 -> 13 ;
14 [label="superb <= 0.5\nentropy = 0.88\nsamples = 164\nvalue = [115, 49]"] ;
13 -> 14 ;
15 [label="entropy = 0.845\nsamples = 158\nvalue = [115, 43]"] ;
14 -> 15 ;
16 [label="entropy = 0.0\nsamples = 6\nvalue = [0, 6]"] ;
14 -> 16 ;
17 [label="entropy = 0.0\nsamples = 10\nvalue = [0, 10]"] ;
13 -> 17 ;
18 [label="merely <= 1.5\nentropy = 0.196\nsamples = 33\nvalue = [32, 1]"] ;
12 -> 18 ;
19 [label="entropy = 0.0\nsamples = 32\nvalue = [32, 0]"] ;
18 -> 19 ;
20 [label="entropy = 0.0\nsamples = 1\nvalue = [0, 1]"] ;
18 -> 20 ;
21 [label="bad <= 2.5\nentropy = 0.907\nsamples = 472\nvalue = [152, 320]"] ;
1 -> 21 ;
22 [label="ridiculous <= 0.5\nentropy = 0.857\nsamples = 437\nvalue = [123, 314]"] ;
21 -> 22 ;
23 [label="and <= 29.5\nentropy = 0.817\nsamples = 414\nvalue = [105, 309]"] ;
22 -> 23 ;
24 [label="even <= 1.5\nentropy = 0.885\nsamples = 323\nvalue = [98, 225]"] ;
23 -> 24 ;
25 [label="entropy = 0.767\nsamples = 210\nvalue = [47, 163]"] ;
24 -> 25 ;
26 [label="entropy = 0.993\nsamples = 113\nvalue = [51, 62]"] ;
24 -> 26 ;
27 [label="minutes <= 2.5\nentropy = 0.391\nsamples = 91\nvalue = [7, 84]"] ;
23 -> 27 ;
28 [label="entropy = 0.216\nsamples = 87\nvalue = [3, 84]"] ;
27 -> 28 ;
29 [label="entropy = 0.0\nsamples = 4\nvalue = [4, 0]"] ;
27 -> 29 ;
30 [label="feel <= 0.5\nentropy = 0.755\nsamples = 23\nvalue = [18, 5]"] ;
22 -> 30 ;
31 [label="wait <= 1.5\nentropy = 0.469\nsamples = 20\nvalue = [18, 2]"] ;
30 -> 31 ;
32 [label="entropy = 0.0\nsamples = 18\nvalue = [18, 0]"] ;
31 -> 32 ;
33 [label="entropy = 0.0\nsamples = 2\nvalue = [0, 2]"] ;
31 -> 33 ;
34 [label="entropy = 0.0\nsamples = 3\nvalue = [0, 3]"] ;
30 -> 34 ;
35 [label="enjoyable <= 0.5\nentropy = 0.661\nsamples = 35\nvalue = [29, 6]"] ;
21 -> 35 ;
36 [label="harm <= 0.5\nentropy = 0.449\nsamples = 32\nvalue = [29, 3]"] ;
35 -> 36 ;
37 [label="burnin <= 0.5\nentropy = 0.211\nsamples = 30\nvalue = [29, 1]"] ;
36 -> 37 ;
38 [label="entropy = 0.0\nsamples = 29\nvalue = [29, 0]"] ;
37 -> 38 ;
39 [label="entropy = 0.0\nsamples = 1\nvalue = [0, 1]"] ;
37 -> 39 ;
40 [label="entropy = 0.0\nsamples = 2\nvalue = [0, 2]"] ;
36 -> 40 ;
41 [label="entropy = 0.0\nsamples = 3\nvalue = [0, 3]"] ;
35 -> 41 ;
42 [label="most <= 3.5\nentropy = 0.714\nsamples = 153\nvalue = [123, 30]"] ;
0 -> 42 [labeldistance=2.5, labelangle=-45, headlabel="False"] ;
43 [label="two <= 3.5\nentropy = 0.584\nsamples = 143\nvalue = [123, 20]"] ;
42 -> 43 ;
44 [label="flashy <= 0.5\nentropy = 0.464\nsamples = 132\nvalue = [119, 13]"] ;
43 -> 44 ;
45 [label="their <= 1.5\nentropy = 0.369\nsamples = 127\nvalue = [118, 9]"] ;
44 -> 45 ;
46 [label="entropy = 0.0\nsamples = 77\nvalue = [77, 0]"] ;
45 -> 46 ;
47 [label="all <= 0.5\nentropy = 0.68\nsamples = 50\nvalue = [41, 9]"] ;
45 -> 47 ;
48 [label="entropy = 0.0\nsamples = 4\nvalue = [0, 4]"] ;
47 -> 48 ;
49 [label="entropy = 0.496\nsamples = 46\nvalue = [41, 5]"] ;
47 -> 49 ;
50 [label="wooden <= 0.5\nentropy = 0.722\nsamples = 5\nvalue = [1, 4]"] ;
44 -> 50 ;
51 [label="entropy = 0.0\nsamples = 4\nvalue = [0, 4]"] ;
50 -> 51 ;
52 [label="entropy = 0.0\nsamples = 1\nvalue = [1, 0]"] ;
50 -> 52 ;
53 [label="then <= 1.5\nentropy = 0.946\nsamples = 11\nvalue = [4, 7]"] ;
43 -> 53 ;
54 [label="entropy = 0.0\nsamples = 7\nvalue = [0, 7]"] ;
53 -> 54 ;
55 [label="entropy = 0.0\nsamples = 4\nvalue = [4, 0]"] ;
53 -> 55 ;
56 [label="entropy = 0.0\nsamples = 10\nvalue = [0, 10]"] ;
42 -> 56 ;
}